tree
version=v4
num_class=1
num_tree_per_iteration=1
label_index=0
max_feature_idx=86
objective=binary sigmoid:1
feature_names=Column_0 Column_1 Column_2 Column_3 Column_4 Column_5 Column_6 Column_7 Column_8 Column_9 Column_10 Column_11 Column_12 Column_13 Column_14 Column_15 Column_16 Column_17 Column_18 Column_19 Column_20 Column_21 Column_22 Column_23 Column_24 Column_25 Column_26 Column_27 Column_28 Column_29 Column_30 Column_31 Column_32 Column_33 Column_34 Column_35 Column_36 Column_37 Column_38 Column_39 Column_40 Column_41 Column_42 Column_43 Column_44 Column_45 Column_46 Column_47 Column_48 Column_49 Column_50 Column_51 Column_52 Column_53 Column_54 Column_55 Column_56 Column_57 Column_58 Column_59 Column_60 Column_61 Column_62 Column_63 Column_64 Column_65 Column_66 Column_67 Column_68 Column_69 Column_70 Column_71 Column_72 Column_73 Column_74 Column_75 Column_76 Column_77 Column_78 Column_79 Column_80 Column_81 Column_82 Column_83 Column_84 Column_85 Column_86
feature_infos=[-2.9058081003415359:1.8701691612123248] [-2.2258904061583098:2.0527303993713897] [-1.7904570310835297:2.9839135473452152] [-1.4760058058767864:3.7613190253150557] [-1.549467069086198:3.5963357051719096] [-1.547390492335079:3.4602632412086347] [-1.4896358573458952:3.5852899966362624] [-1.5857499892020541:3.6434993713863961] [-0.74242520693232805:5.1332011981577867] [-1.4938624944973276:4.2426438214216802] [-2.5604757018931874:1.5329569191231645] [-1.8083719906561477:3.6150059967648058] [-1.0248008227148007:3.301815245102087] [-0.9780749619569884:3.9598740039200426] [-0.26064209220612672:8.351880718183379] [-0.81367152164471312:6.4262611250392778] [-1.78114139166564:4.4085465666055308] [-0.99996041880887976:3.2201108446096427] [-0.9916795748233902:3.0615882074945673] [-1.6683238119301649:5.6658112084885106] [-0.82662027395668736:6.2317915935566432] [-0.99477685314476738:3.416363078159149] [-2.0199956656269809:3.19422919803413] [-0.26064209220612672:8.351880718183379] [-0.43840566193621749:8.9544627185376573] [-6.5330597374256421:3.6501827805945526] [-2.6169853084647108:1.8998490113329534] [-0.51661755739320203:5.2239467277644929] [-3.6419591293125606:1.7903208849503174] [-3.1313826038217996:2.3002758369831366] [-5.9079852445805132:1.6742299655645725] [-3.2271963577008584:1.7164998832560132] [-1.5703695152188204:1.6237754246927643] [-0.47038299125419175:6.5117266450294737] [-2.9399994669036897:2.4763832176902927] [-0.54035060408841529:6.1931107649359047] [-2.6820696466311023:3.1836716678585284] [-0.46476558447511279:8.4748502865539059] [-1.1456932835527982:2.7895411816986955] [-0.80705323467164358:4.2888274509120947] [-0.62429438775557955:3.5606177006399498] [-0.67557390563261566:4.5477412101145029] [-0.97710790632408895:4.2589298882457767] [-0.93185570555085973:4.8352470908034526] [-0.67866719843564938:4.1575766040117763] [-0.62510797008677466:5.3800297527583698] [-0.67532654796120717:6.3787876922729998] [-0.56643848431120825:5.9118738933583206] [-0.57612834669013968:5.9946970661196577] [-0.77645044436706501:6.4483664653723975] [-0.91018825531622161:4.7932870398791563] [-0.46027488372012676:8.9332937356767133] [-0.41873654877590266:7.2532593306473032] [-0.2383219571532425:9.3500928273345796] [-0.40576943506951885:8.5809506041776391] [-1.7892710566214327:2.4184693404861264] [-2.4531267292278907:2.0172032662728618] [-0.51244355554366205:5.6911710584158621] [-3.1548848997135344:2.5694884058570082] [-0.36358081515417479:9.8710067208212866] [-0.73920083510034085:5.5065915985363851] [-0.52548731544808336:6.8868942619333025] [-0.73124703228267685:1.3675269175156555] [-1.1306416388334182:0.88445354005517385] [-0.41147559989891175:2.4302777619029472] [-0.63846950757409771:1.5662455107677082] [-0.71672772385124495:1.39522996909709] [-2.594774543449696:1.9483650401079142] [-2.0677283123056838:3.9190616997899044] [-2.4444823137025131:0.63083414547161576] [-2.4385116793731991:2.1028738358639667] [-1.5655305107590767:2.820800998036777] [-1.6207036573940368:3.7780832760275573] [-1.3406969659212253:0.74588070639279458] [-0.8696814559725965:5.8902047663684201] [-0.93139883321747208:6.1139427394810406] [-1.3077525363661182:2.9681252669838609] [-0.76227953666627235:6.9677465062923645] [-1.4094277159494513:0.70950782979768301] [-0.418965290798196:2.3868325657594198] [-0.5965133869905147:1.6764083117147224] [-0.72397370880059086:1.3812656286327061] [-0.56167267200406912:1.7803963942770489] [-0.38864079387870065:2.5730700836107077] none [-0.38864079387870065:2.5730700836107077] [-0.49150079726066087:2.0345846956371543]
tree_sizes=734 759 968 1050 1036 1045 868 966 966 1048 948 917 968 1051 950 945 964 947 842 922 854 948 772 772 829 1045 844 1024 960 959 833 850 962 846 769 843 843 850 850 769 843 834

Tree=0
num_leaves=6
num_cat=0
split_feature=80 64 62 67 66
split_gain=19.1603 24.3102 16.1898 7.20454 1.80455
threshold=1.6685074875464354 1.0000000180025095e-35 -0.70457253176411216 -0.56276999065847277 -0.64248993186752934
decision_type=2 2 2 2 2
left_child=1 2 3 -1 -4
right_child=-2 -3 4 -5 -6
leaf_value=0.017333333333333333 -0.032307692307692308 -0.039999999999999994 0.017999999999999992 -0.015918367346938776 0.049090909090909074
leaf_weight=10.249999999999998 11.999999999999998 6.4999999999999991 9.0000000000000018 11.249999999999998 10.000000000000002
leaf_count=41 48 26 36 45 40
internal_value=0 0.00875 0.0180723 0 0.0375
internal_weight=59 47 40.5 21.5 19
internal_count=236 188 162 86 76
is_linear=0
shrinkage=0.03


Tree=1
num_leaves=6
num_cat=0
split_feature=80 64 62 67 60
split_gain=18.116 23.0829 15.3608 6.81505 1.83218
threshold=1.6685074875464354 1.0000000180025095e-35 -0.70457253176411216 -0.56276999065847277 -0.54020841943975062
decision_type=2 2 2 2 2
left_child=1 2 3 -1 -4
right_child=-2 -3 4 -5 -6
leaf_value=0.016860721833030244 -0.031420662925332736 -0.038973644432808936 0.0090481028979388766 -0.015480710535375999 0.043089777178705678
leaf_weight=10.249230206012724 11.996869325637816 6.4974007308483115 4.9979009479284313 11.249287202954291 13.99534757435322
leaf_count=41 48 26 20 45 56
internal_value=0 0.00850728 0.0176049 0 0.0365331
internal_weight=58.986 46.9892 40.4918 21.4985 18.9932
internal_count=236 188 162 86 76
is_linear=0
shrinkage=0.03


Tree=2
num_leaves=8
num_cat=0
split_feature=63 62 62 16 65 34 22
split_gain=22.6677 9.02223 7.69552 4.06915 2.73969 0.97008 0.23408
threshold=0.70491483195184934 -0.70457253176411216 -0.70457253176411216 -0.095394719113953655 -0.6308057742783032 0.70561107896641462 -0.090532801578674313
decision_type=2 2 2 2 2 2 2
left_child=1 3 5 -1 -4 -2 -3
right_child=2 6 4 -5 -6 -7 -8
leaf_value=-0.011843132688752313 -0.039761035355171045 0.013384746850730244 -0.011637007607424142 0.015200178901359371 0.014033089163333172 -0.0090850643962099541 0.044297625935226501
leaf_weight=7.7479528486728713 10.238873869180678 4.9941387325525284 8.4905898422002775 9.7473454475402832 4.994605466723443 4.996473729610444 7.7378087937831861
leaf_count=31 41 20 34 39 20 20 31
internal_value=0 0.0178387 -0.0187637 0.00160897 0 -0.0327278 0.0362144
internal_weight=58.9478 30.2272 28.7205 17.4953 13.4852 15.2353 12.7319
internal_count=236 121 115 70 54 61 51
is_linear=0
shrinkage=0.03


Tree=3
num_leaves=9
num_cat=0
split_feature=63 62 62 11 29 36 1 22
split_gain=21.5418 8.60722 7.32677 3.92227 3.05747 3.01599 1.08092 0.161948
threshold=0.70491483195184934 -0.70457253176411216 -0.70457253176411216 -0.18276707145096088 0.36410720095616178 -0.18170469824242011 0.62200132779301798 -0.090532801578674313
decision_type=2 2 2 2 2 2 2 2
left_child=1 3 6 4 -1 -4 -2 -3
right_child=2 7 5 -5 -6 -7 -8 -9
leaf_value=0.027620237837091777 -0.039015889985203112 0.013055496746768704 0.013813576646002121 -0.013281805498639882 0 -0.012811959560749479 -0.0083035299356833906 0.043205981910891332
leaf_weight=5.4985896348953265 10.227013245224951 4.991739496588707 5.4933817386627197 6.7476126700639751 5.2475711703300476 7.9880576729774475 4.9913704991340646 7.7208215147256833
leaf_count=22 41 20 22 27 21 32 20 31
internal_value=0 0.017403 -0.018291 0.00151762 0.0137039 0 -0.0319256 0.0353703
internal_weight=58.9062 30.2063 28.6998 17.4938 10.7462 13.4814 15.2184 12.7126
internal_count=236 121 115 70 43 54 61 51
is_linear=0
shrinkage=0.03


Tree=4
num_leaves=9
num_cat=0
split_feature=63 63 12 65 1 10 59 42
split_gain=20.4706 7.62518 6.99825 5.6281 5.17987 3.93606 3.35998 1.87592
threshold=0.70491483195184934 -1.1050306589566257 -0.62818318379445415 -0.6308057742783032 0.63087995297731136 0.40439125913625457 -0.36146540780223402 -0.45703752032134753
decision_type=2 2 2 2 2 2 2 2
left_child=1 2 6 4 7 -4 -1 -2
right_child=3 -3 5 -5 -6 -7 -8 -9
leaf_value=0.001101770319615943 -0.0096628594540404972 0.04499139945603494 -0.021902954757314304 0 0 0.0074423053693544296 0.039240759882568255 -0.045096430498882983
leaf_weight=5.7443063110113144 5.2325515151023891 6.2292915880680075 6.7395060360431671 9.234602749347685 5.239856928586959 5.9897321313619614 5.4749048501253164 8.9682759195566195
leaf_count=23 21 25 27 37 21 24 22 36
internal_value=0 0.0169758 0.00697488 -0.0178345 -0.0266377 -0.00637314 0.0238568 -0.0355085
internal_weight=58.853 30.1777 23.9484 28.6753 19.4407 12.7292 11.2192 14.2008
internal_count=236 121 96 115 78 51 45 57
is_linear=0
shrinkage=0.03


Tree=5
num_leaves=9
num_cat=0
split_feature=63 63 53 33 65 10 77 36
split_gain=19.5116 7.21683 6.70452 6.24796 5.37692 2.86831 2.61166 0.099207
threshold=0.70491483195184934 -1.1050306589566257 -0.23787531814329008 -0.021784869498168043 -0.6308057742783032 0.51016859005854498 -0.20371780901480299 -0.18170469824242011
decision_type=2 2 2 2 2 2 2 2
left_child=1 2 6 -4 5 7 -1 -2
right_child=4 -3 3 -5 -6 -7 -8 -9
leaf_value=-0.022088084358863148 -0.012065013940303041 0.043938420288442602 0.038409141521861888 0 0 -0.0021510603860047848 0.0018142550158871714 -0.040590021747364556
leaf_weight=5.2433117479085922 4.9781485646963146 6.2114417850971213 7.2042097598314312 5.2471911311149571 9.234602749347685 5.9791255742311469 6.2409552633762395 8.4536200165748614
leaf_count=21 20 25 29 21 37 24 25 34
internal_value=0 0.0166094 0.00683663 0.0219488 -0.0173926 -0.0260087 -0.00759082 -0.0336652
internal_weight=58.7926 30.1471 23.9357 12.4514 28.6455 19.4109 11.4843 13.4318
internal_count=236 121 96 50 115 78 46 54
is_linear=0
shrinkage=0.03


Tree=6
num_leaves=7
num_cat=0
split_feature=80 64 62 67 60 14
split_gain=14.7296 19.333 13.0118 6.14934 2.06789 0.00069866
threshold=1.6685074875464354 1.0000000180025095e-35 -0.70457253176411216 -0.56276999065847277 -0.54020841943975062 -0.24057177221063403
decision_type=2 2 2 2 2 2
left_child=1 2 3 -1 -4 -2
right_child=5 -3 4 -5 -6 -7
leaf_value=0.015922819846778017 -0.010514384490790445 -0.035801514532357866 0.0065411370105944696 -0.014814746064173304 0.040137803993979052 -0.036086100490766743
leaf_weight=10.23536905646324 5.4732283055782318 6.4486150145530692 4.9674670696258572 11.237421795725821 13.898465007543566 6.4553667008876783
leaf_count=41 22 26 20 45 56 26
internal_value=0 0.00769992 0.0160777 0 0.0335764 -0.0283942
internal_weight=58.7159 46.7873 40.3387 21.4728 18.8659 11.9286
internal_count=236 188 162 86 76 48
is_linear=0
shrinkage=0.03


Tree=7
num_leaves=8
num_cat=0
split_feature=63 62 62 16 36 25 10
split_gain=17.8208 7.31995 6.78479 3.62915 2.58197 1.065 0.477922
threshold=0.70491483195184934 -0.70457253176411216 -0.70457253176411216 -0.095394719113953655 -0.18170469824242011 0.21833307690002049 -0.07231891582926199
decision_type=2 2 2 2 2 2 2
left_child=1 3 5 -1 -4 -2 -3
right_child=2 6 4 -5 -6 -7 -8
leaf_value=-0.011518775843489076 -0.011118549090463324 0.010468076647212183 0.013572075893180373 0.014085828970368126 -0.01123386541258938 -0.039490360575179594 0.040476641657285178
leaf_weight=7.7397399991750762 6.9439245313405999 4.9475561082363129 5.4859851151704788 9.7321946918964386 7.9465082287788391 8.1812150478363019 7.6348952651023847
leaf_count=31 28 20 22 39 32 33 31
internal_value=0 0.0158519 -0.0166918 0.00110983 0 -0.0298227 0.0325251
internal_weight=58.612 30.0544 28.5576 17.4719 13.4325 15.1251 12.5825
internal_count=236 121 115 70 54 61 51
is_linear=0
shrinkage=0.03


Tree=8
num_leaves=8
num_cat=0
split_feature=63 62 62 16 36 28 10
split_gain=16.965 7.0082 6.47793 3.43899 2.45016 1.20015 0.411934
threshold=0.70491483195184934 -0.70457253176411216 -0.70457253176411216 -0.095394719113953655 -0.18170469824242011 0.66791396386537671 -0.07231891582926199
decision_type=2 2 2 2 2 2 2
left_child=1 3 5 -1 -4 -2 -3
right_child=2 6 4 -5 -6 -7 -8
leaf_value=-0.01121416478070592 -0.03611489849106693 0.010215385601562332 0.013229124516815899 0.013707439495969288 -0.010939294354155089 -0.0061960733504022774 0.039588176674546671
leaf_weight=7.7386542260646864 10.130902737379072 4.9426531046628952 5.4852908402681351 9.7284827381372452 7.9426613003015518 4.9574861079454431 7.5950934737920743
leaf_count=31 41 20 22 39 32 20 31
internal_value=0 0.0154825 -0.0162939 0.00103228 0 -0.0291455 0.0318347
internal_weight=58.5212 30.0049 28.5163 17.4671 13.428 15.0884 12.5377
internal_count=236 121 115 70 54 61 51
is_linear=0
shrinkage=0.03


Tree=9
num_leaves=9
num_cat=0
split_feature=63 62 62 11 28 5 28 22
split_gain=16.1483 6.71454 6.18342 3.43952 3.00959 2.1284 1.09717 0.436552
threshold=0.70491483195184934 -0.70457253176411216 -0.70457253176411216 -0.18276707145096088 0.51715188260030909 0.37538915065184669 0.66791396386537671 -0.090532801578674313
decision_type=2 2 2 2 2 2 2 2
left_child=1 3 6 4 -1 -4 -2 -3
right_child=2 7 5 -5 -6 -7 -8 -9
leaf_value=0.026477943383869478 -0.035259268560286244 0.009733775688002988 0.0083747688405698857 -0.012822513664658537 0 -0.014298701228565233 -0.0060438637562934324 0.038884193567579731
leaf_weight=5.488422170281412 10.090319052338598 4.931193545460701 8.2143065184354764 6.7376008480787304 5.2350331544876099 5.2082691490650186 4.9550866186618814 7.556930333375929
leaf_count=22 41 20 33 27 21 21 20 31
internal_value=0 0.0151257 -0.015903 0.000956981 0.0125289 0 -0.0284834 0.0311728
internal_weight=58.4172 29.9492 28.468 17.4611 10.7235 13.4226 15.0454 12.4881
internal_count=236 121 115 70 43 54 61 51
is_linear=0
shrinkage=0.03


Tree=10
num_leaves=8
num_cat=0
split_feature=63 63 22 62 18 36 25
split_gain=15.3697 6.57349 8.74602 5.89803 4.3403 2.28532 1.15692
threshold=0.70491483195184934 -1.1050306589566257 -0.068470332151122623 -0.70457253176411216 -0.51724431342588806 -0.18170469824242011 0.21833307690002049
decision_type=2 2 2 2 2 2 2
left_child=1 2 -1 6 -4 -5 -2
right_child=3 -3 4 5 -6 -7 -8
leaf_value=-0.013912905047484023 -0.0095130269304521189 0.040932628003231122 0.032134076100988659 0.012789500727276564 0 -0.010559420368491806 -0.037410256580567215
leaf_weight=9.7010656297206932 6.9001764059066781 6.1119342893362036 9.1124576628208178 5.4833408743143082 4.964184850454326 7.9353117942810059 8.0971248596906644
leaf_count=39 28 25 37 22 20 32 33
internal_value=0 0.0147666 0.00544948 -0.0155328 0.0208208 0 -0.0278472
internal_weight=58.3056 29.8896 23.7777 28.416 14.0766 13.4187 14.9973
internal_count=236 121 96 115 57 54 61
is_linear=0
shrinkage=0.03


Tree=11
num_leaves=8
num_cat=0
split_feature=63 63 22 65 1 12 42
split_gain=14.6135 6.29459 8.29008 4.63427 4.84282 4.24029 1.86781
threshold=0.70491483195184934 -1.1050306589566257 -0.068470332151122623 -0.6308057742783032 0.63087995297731136 -0.53338352854575632 -0.45703752032134753
decision_type=2 2 2 2 2 2 2
left_child=1 2 -1 4 6 -4 -2
right_child=3 -3 5 -5 -6 -7 -8
leaf_value=-0.013531075704668823 -0.0071907283566626182 0.040096031792187022 0.031485157571246106 0 0 0 -0.041201127120366624
leaf_weight=9.7037478387355858 5.1651445329189327 6.0737128406763068 9.0911961197853106 9.188339635729788 5.1981403529644004 4.9571789801120714 8.8086922466754931
leaf_count=39 21 25 37 37 21 20 36
internal_value=0 0.0144013 0.00526435 -0.0151726 -0.0232772 0.0202771 -0.0319531
internal_weight=58.1862 29.8258 23.7521 28.3603 19.172 14.0484 13.9738
internal_count=236 121 96 115 78 57 57
is_linear=0
shrinkage=0.03


Tree=12
num_leaves=8
num_cat=0
split_feature=63 62 62 16 75 16 10
split_gain=13.8689 6.2632 5.674 3.1999 2.40138 1.16772 0.472746
threshold=0.70491483195184934 -0.70457253176411216 -0.70457253176411216 -0.095394719113953655 -0.50788478911916524 0.21281029554881736 -0.07231891582926199
decision_type=2 2 2 2 2 2 2
left_child=1 3 5 -1 -4 -2 -3
right_child=2 6 4 -5 -6 -7 -8
leaf_value=-0.011419332639046761 -0.034955313896234505 0.0086349062638674812 -0.014755494055978115 0.012771117583917543 0.009389722344970635 -0.0069737302450060224 0.037210427122819502
leaf_weight=7.7234826833009764 9.0136147588491422 4.8895851820707321 5.2077560275793084 9.6990554332733154 8.1832333356142026 5.8977415114641198 7.4422231018543226
leaf_count=31 37 20 21 39 33 24 31
internal_value=0 0.0140474 -0.0147941 0.000381193 0 -0.0269073 0.029628
internal_weight=58.0567 29.7543 28.3023 17.4225 13.391 14.9114 12.3318
internal_count=236 121 115 70 54 61 51
is_linear=0
shrinkage=0.03


Tree=13
num_leaves=9
num_cat=0
split_feature=63 62 62 11 28 75 25 22
split_gain=13.2234 6.01196 5.41988 3.09185 2.84189 2.27997 1.198 0.453883
threshold=0.70491483195184934 -0.70457253176411216 -0.70457253176411216 -0.18276707145096088 0.51715188260030909 -0.50788478911916524 0.21833307690002049 -0.090532801578674313
decision_type=2 2 2 2 2 2 2 2
left_child=1 3 6 4 -1 -4 -2 -3
right_child=2 7 5 -5 -6 -7 -8 -9
leaf_value=0.02516556568153271 -0.0083196254334605129 0.0083193106125327102 -0.014392404555909739 -0.012702108524796432 0 0.0091371718870310436 -0.035780349024165783 0.03652820484763377
leaf_weight=5.4673333913087863 6.8526475429534921 4.8778545409440994 5.2042429596185693 6.7257057428360012 5.2218708097934723 8.1847500652074796 8.0033063143491727 7.3922062963247281
leaf_count=22 28 20 21 27 21 33 33 31
internal_value=0 0.0137333 -0.0144587 0.000323293 0.0114709 0 -0.0263291 0.0290467
internal_weight=57.9299 29.685 28.2449 17.4149 10.6892 13.389 14.856 12.2701
internal_count=236 121 115 70 43 54 61 51
is_linear=0
shrinkage=0.03


Tree=14
num_leaves=8
num_cat=0
split_feature=63 63 22 62 12 36 16
split_gain=12.5986 5.96708 7.68729 5.18129 4.00912 2.14476 1.13097
threshold=0.70491483195184934 -1.1050306589566257 -0.068470332151122623 -0.70457253176411216 -0.53338352854575632 -0.18170469824242011 0.21281029554881736
decision_type=2 2 2 2 2 2 2
left_child=1 2 -1 6 -4 -5 -2
right_child=3 -3 4 5 -6 -7 -8
leaf_value=-0.013514833267628793 -0.033658179912719077 0.038544679396567125 0.030127574486703227 0.012777409462346061 0 -0.0098972027301253117 -0.0062831950649069671
leaf_weight=9.6879540979862266 8.9233344346284849 5.9816103130578986 9.0024915635585803 5.4791060388088226 4.9385170936584428 7.9070664644241333 5.8750650733709344
leaf_count=39 37 25 37 22 20 32 24
internal_value=0 0.0134123 0.00452532 -0.0141365 0.0191352 0 -0.0257747
internal_weight=57.7951 29.6106 23.629 28.1846 13.941 13.3862 14.7984
internal_count=236 121 96 115 57 54 61
is_linear=0
shrinkage=0.03


Tree=15
num_leaves=8
num_cat=0
split_feature=63 5 4 62 28 36 28
split_gain=11.9826 5.88255 6.10187 4.96004 3.55735 2.03581 1.20108
threshold=0.70491483195184934 0.31890759697527676 -0.63914368538464295 -0.70457253176411216 0.64646420881279332 -0.18170469824242011 0.66791396386537671
decision_type=2 2 2 2 2 2 2
left_child=1 2 -1 6 -4 -5 -2
right_child=3 -3 4 5 -6 -7 -8
leaf_value=-0.0019703274820595724 -0.031888869146784474 -0.0098877867285849033 0.036328975915958718 0.012456652043855869 0 -0.0096394659656107353 -0.0036309674114242893
leaf_weight=5.9169960767030778 9.8408104181289655 5.6646153032779685 13.045195221900942 5.4773623645305634 4.8998390287160865 7.901746541261673 4.8960961997509012
leaf_count=24 41 23 54 22 20 32 20
internal_value=0 0.0130862 0.019925 -0.0138148 0.0284509 0 -0.0252343
internal_weight=57.6427 29.5266 23.862 28.116 17.945 13.3791 14.7369
internal_count=236 121 98 115 74 54 61
is_linear=0
shrinkage=0.03


Tree=16
num_leaves=8
num_cat=0
split_feature=63 62 62 16 75 25 22
split_gain=11.3539 5.72711 4.74793 2.97492 2.22646 1.24993 0.415334
threshold=0.70491483195184934 -0.70457253176411216 -0.70457253176411216 -0.095394719113953655 -0.50788478911916524 0.21833307690002049 -0.090532801578674313
decision_type=2 2 2 2 2 2 2
left_child=1 3 5 -1 -4 -2 -3
right_child=2 6 4 -5 -6 -7 -8
leaf_value=-0.011700709213548124 -0.0070198768988880512 0.0075897071204747077 -0.014209377352651825 0.011804923507462111 0.0090590365246840839 -0.034075715861818422 0.035014337061829333
leaf_weight=7.702401846647267 6.7954617738723755 4.8394722193479538 5.1944293975830087 9.6634345650672913 8.1770144701004011 7.8763696402311325 7.2523879557847959
leaf_count=31 28 20 21 39 33 33 31
internal_value=0 0.0127169 -0.0134997 0 0 -0.0247062 0.0277479
internal_weight=57.501 29.4577 28.0433 17.3658 13.3714 14.6718 12.0919
internal_count=236 121 115 70 54 61 51
is_linear=0
shrinkage=0.03


Tree=17
num_leaves=8
num_cat=0
split_feature=63 63 22 62 12 75 28
split_gain=10.8382 5.6847 7.13096 4.54399 3.76841 2.11411 1.18153
threshold=0.70491483195184934 -1.1050306589566257 -0.068470332151122623 -0.70457253176411216 -0.53338352854575632 -0.50788478911916524 0.66791396386537671
decision_type=2 2 2 2 2 2 2
left_child=1 2 -1 6 -4 -5 -2
right_child=3 -3 4 5 -6 -7 -8
leaf_value=-0.013524258867757957 -0.030760102651697385 0.037100618488002779 0.02878992933355275 -0.013861400518403037 0 0.0088158936557985092 -0.0030086153310319831
leaf_weight=9.6782773733139091 9.7300289869308454 5.877531260251998 8.9022023975849169 5.1902521401643762 4.9204563051462129 8.178024008870123 4.8770861923694619
leaf_count=39 41 25 37 21 20 33 20
internal_value=0 0.0124406 0.00378618 -0.0132054 0.0180252 0 -0.024203
internal_weight=57.3539 29.3785 23.5009 27.9754 13.8227 13.3683 14.6071
internal_count=236 121 96 115 57 54 61
is_linear=0
shrinkage=0.03


Tree=18
num_leaves=7
num_cat=0
split_feature=34 80 62 78 26 23
split_gain=10.3045 14.5055 8.20012 6.30705 5.38659 0.817573
threshold=-1.2418516093673715 1.6685074875464354 -0.70457253176411216 -1.3955348478740512 0.43534861686835008 -0.24057177221063403
decision_type=2 2 2 2 2 2
left_child=-1 2 4 -4 -2 -3
right_child=1 5 3 -5 -6 -7
leaf_value=-0.034686240319899982 0.010781375692299229 -0.0044410113265041474 0 0.037202649795526087 -0.019669986735605029 -0.031729601905684982
leaf_weight=5.8525930047035208 14.448620602488516 5.0727054327726364 4.885955527424815 13.763808414340021 6.8887188881635657 6.2740321606397611
leaf_count=24 59 21 20 58 28 26
internal_value=0 0.0044352 0.013416 0.0274047 0 -0.0233075
internal_weight=57.1864 51.3338 39.9871 18.6498 21.3373 11.3467
internal_count=236 212 165 78 87 47
is_linear=0
shrinkage=0.03


Tree=19
num_leaves=8
num_cat=0
split_feature=63 5 5 24 67 10 66
split_gain=9.93292 5.42562 4.42217 4.2313 5.1791 4.42646 1.27438
threshold=0.70491483195184934 0.31890759697527676 -0.69692501480406299 -0.38509508408943044 -0.56276999065847277 0.51016859005854498 1.3065995099355312
decision_type=2 2 2 2 2 2 2
left_child=1 2 -1 4 -2 -5 -4
right_child=3 -3 6 5 -6 -7 -8
leaf_value=0 0 -0.010133327253189058 0.031751949582418552 -0.013636776215111727 -0.038485854733526906 0.017537268679014135 0.0044981048546853886
leaf_weight=5.8379594236612382 4.8769311159849167 5.6334735602140418 12.349983647465708 9.4290189296007139 7.8780141174793261 5.6472909748554221 5.3636839389801017
leaf_count=24 20 23 52 39 33 23 22
internal_value=0 0.0118787 0.0185641 -0.0127412 -0.0248421 0 0.025784
internal_weight=57.0164 29.1851 23.5516 27.8313 12.7549 15.0763 17.7137
internal_count=236 121 98 115 53 62 74
is_linear=0
shrinkage=0.03


Tree=20
num_leaves=7
num_cat=0
split_feature=34 65 10 49 68 77
split_gain=9.61495 10.5274 8.14294 5.76935 4.16176 1.97844
threshold=-1.2418516093673715 -0.6308057742783032 -0.42274314965454329 -0.25065329882124232 0.65182308770695496 -0.37972309923694642
decision_type=2 2 2 2 2 2
left_child=-1 2 5 -4 -3 -2
right_child=1 4 3 -5 -6 -7
leaf_value=-0.03365295971295567 -0.0037626983798231695 0.028821849308195802 -0.0086440046105623856 0.02059984244980111 0 -0.039448041056073628
leaf_weight=5.8202266395092002 4.8388306349515915 14.722521066665651 11.572693109512331 9.7433311492204648 4.8676762878894797 5.3037663996219653
leaf_count=24 20 61 48 41 20 22
internal_value=0 0.00422567 -0.00579225 0.00370283 0.0212698 -0.0269812
internal_weight=56.869 51.0488 31.4586 21.316 19.5902 10.1426
internal_count=236 212 131 89 81 42
is_linear=0
shrinkage=0.03


Tree=21
num_leaves=8
num_cat=0
split_feature=63 63 22 62 12 36 1
split_gain=9.15891 5.23281 6.45171 4.15453 3.49014 1.95594 1.27533
threshold=0.70491483195184934 -1.1050306589566257 -0.068470332151122623 -0.70457253176411216 -0.53338352854575632 -0.18170469824242011 0.62200132779301798
decision_type=2 2 2 2 2 2 2
left_child=1 2 -1 6 -4 -5 -2
right_child=3 -3 4 5 -6 -7 -8
leaf_value=-0.013337318248327018 -0.02955022678382065 0.035279032773482016 0.027298345487374694 0.012523106768626457 0 -0.0092000455393934696 -0.001872805252750508
leaf_weight=9.6516096442937904 9.571413189172743 5.7175772786140433 8.7691834717988986 5.4497372061014175 4.8966950029134706 7.8473632633686066 4.8322868347167978
leaf_count=39 41 25 37 22 20 32 20
internal_value=0 0.0113634 0.00305583 -0.0123319 0.0167991 0 -0.0229367
internal_weight=56.7359 29.0351 23.3175 27.7008 13.6659 13.2971 14.4037
internal_count=236 121 96 115 57 54 61
is_linear=0
shrinkage=0.03


Tree=22
num_leaves=6
num_cat=0
split_feature=34 80 5 49 14
split_gain=9.06055 12.7047 6.80408 6.48818 0.920426
threshold=-1.2418516093673715 1.6685074875464354 0.31890759697527676 -0.57100714903649141 -0.24057177221063403
decision_type=2 2 2 2 2
left_child=-1 2 3 -2 -3
right_child=1 4 -4 -5 -6
leaf_value=-0.032813187896782253 -0.0016323735999048453 -0.0032454750684607599 -0.0075158947163593256 0.027014990115619867 -0.030467305518549034
leaf_weight=5.7857300639152518 7.2325688302516893 5.0177298784255981 9.0050754994153959 23.31562967598439 6.1936985403299314
leaf_count=24 30 21 37 98 26
internal_value=0 0.00404808 0.0125329 0.0194448 -0.0220042
internal_weight=56.5504 50.7647 39.5533 30.5482 11.2114
internal_count=236 212 165 128 47
is_linear=0
shrinkage=0.03


Tree=23
num_leaves=6
num_cat=0
split_feature=34 80 4 30 14
split_gain=8.59188 12.0824 5.92443 5.29245 0.853523
threshold=-1.2418516093673715 1.6685074875464354 0.75645640940994452 -0.77045734521889375 -0.24057177221063403
decision_type=2 2 2 2 2
left_child=-1 2 3 -2 -3
right_child=1 4 -4 -5 -6
leaf_value=-0.032095868215528713 -0.0042046372983713691 -0.0031657910597722447 -0.013741310297592849 0.022411157168993105 -0.029848689727081872
leaf_weight=5.7603177726268759 6.0441794693469957 5.0149208307266235 4.8738629370927802 28.54369601607323 6.1537321507930738
leaf_count=24 25 21 20 120 26
internal_value=0 0.00385827 0.0121541 0.0169296 -0.0215777
internal_weight=56.3907 50.6304 39.4617 34.5879 11.1687
internal_count=236 212 165 145 47
is_linear=0
shrinkage=0.03


Tree=24
num_leaves=7
num_cat=0
split_feature=5 49 30 65 66 29
split_gain=8.30883 10.9139 6.27735 6.84025 4.53636 4.36159
threshold=0.31890759697527676 -0.25065329882124232 0.40550473401798787 -0.6308057742783032 -0.64248993186752934 0.53075772091973616
decision_type=2 2 2 2 2 2
left_child=1 2 3 -1 -2 -3
right_child=4 5 -4 -5 -6 -7
leaf_value=-0.0089774365464931685 -0.029959262942341414 0.036910612446517548 -0.0270423999074801 0.024642457878809983 0 0
leaf_weight=11.850753948092461 9.8851078152656537 10.061570391058924 7.015841305255889 7.8540493696928033 4.8009119331836692 4.7639190405607215
leaf_count=50 41 43 29 33 20 20
internal_value=0 0.00648748 -0.00411061 0.003517 -0.0190413 0.0265373
internal_weight=56.2322 41.5461 26.7206 19.7048 14.686 14.8255
internal_count=236 175 112 83 61 63
is_linear=0
shrinkage=0.03


Tree=25
num_leaves=9
num_cat=0
split_feature=62 66 60 67 10 42 46 12
split_gain=8.12799 8.921 8.34573 7.49503 2.9424 2.35565 1.40434 0.155689
threshold=-0.70457253176411216 -0.64248993186752934 -0.52719858191839963 -0.56276999065847277 -0.11730253130763725 0.18742214461222445 -0.24452436939586827 -0.72532770684082271
decision_type=2 2 2 2 2 2 2 2
left_child=3 2 -2 6 -4 7 -1 -5
right_child=1 -3 4 5 -6 -7 -8 -9
leaf_value=0.013966950003300376 -0.031220485629953981 0.033162473341892963 0 -0.0081917981862718557 0.027722352357955532 0 -0.0021533454845486049 -0.034179259658353396
leaf_weight=7.4554427117109299 4.8879012316465369 9.7738825380802137 5.2951492071151725 4.6724900156259563 4.7661926448345211 5.0996191352605811 5.1119226664304751 9.0113621503114683
leaf_count=31 20 43 22 20 20 21 21 38
internal_value=0 0.0122036 -0.000838529 -0.010378 0.0126973 -0.0222748 0.00552323 -0.0285108
internal_weight=56.074 24.7231 14.9492 31.3508 10.0613 18.7835 12.5674 13.6839
internal_count=236 105 62 131 42 79 52 58
is_linear=0
shrinkage=0.03


Tree=26
num_leaves=7
num_cat=0
split_feature=34 5 62 67 82 42
split_gain=7.76299 10.1309 8.36379 5.78055 4.00734 1.90896
threshold=-1.2418516093673715 0.31890759697527676 -0.70457253176411216 -0.56276999065847277 -0.29580655700196962 -0.28611663432897622
decision_type=2 2 2 2 2 2
left_child=-1 2 3 -2 -3 -4
right_child=1 4 5 -5 -6 -7
leaf_value=-0.030761455593878384 0.016844943493701674 -0.029658536262654089 0.039367416419370999 -0.013151883160082086 0 0.0089927800054656875
leaf_weight=5.6949352025985709 9.1703369170427305 7.9241307824850065 8.0969126075506193 12.393154725432394 5.2827067077159882 7.3238568603992489
leaf_count=24 38 33 36 52 22 31
internal_value=0 0.00356745 0.0120616 0 -0.0172824 0.0281946
internal_weight=55.886 50.1911 36.9843 21.5635 13.2068 15.4208
internal_count=236 212 157 90 55 67
is_linear=0
shrinkage=0.03


Tree=27
num_leaves=9
num_cat=0
split_feature=62 67 0 73 43 10 55 12
split_gain=7.44792 6.85789 6.65528 3.77337 3.16251 2.25607 1.36284 0.288541
threshold=-0.70457253176411216 -0.56276999065847277 -0.89129676362807486 -1.3334438857505275 -0.70591238208833496 -0.32724151897175918 -0.59829805570939509 -0.72532770684082271
decision_type=2 2 2 2 2 2 2 2
left_child=1 6 -2 -4 -3 -5 -1 -6
right_child=2 4 3 5 7 -7 -8 -9
leaf_value=0.01648469799742611 -0.013843754400716717 0 0 0.0026264360863031519 -0.0075626551093284792 0.036750594707281266 0 -0.033964278257145125
leaf_weight=4.8417674005031586 5.056314334273341 4.7897648066282299 5.5095649659633663 4.7729670852422759 4.6520555168390301 9.1568198204040456 7.699496269226076 9.2246403843164391
leaf_count=20 21 20 23 20 20 41 32 39
internal_value=0 -0.00996925 0.0117201 0.0201892 -0.0214068 0.0280266 0.00516267 -0.0282332
internal_weight=55.7034 31.2077 24.4957 19.4394 18.6665 13.9298 12.5413 13.8767
internal_count=236 131 105 84 79 61 52 59
is_linear=0
shrinkage=0.03


Tree=28
num_leaves=8
num_cat=0
split_feature=63 63 22 14 67 12 42
split_gain=7.21871 4.57205 5.40704 3.71673 6.66535 3.03509 1.59854
threshold=0.70491483195184934 -1.1050306589566257 -0.068470332151122623 -0.11941912903388489 -0.56276999065847277 -0.53338352854575632 -0.45703752032134753
decision_type=2 2 2 2 2 2 2
left_child=1 2 -1 4 -2 -4 -6
right_child=3 -3 5 -5 6 -7 -8
leaf_value=-0.012705742366539475 0.0030521084786047886 0.032840702387142789 0.025161022387763993 0.0041069176045074604 -0.008711110362921581 0 -0.040072257430585179
leaf_weight=9.5650979876518303 6.5363103002309861 5.4384072422981253 8.4892610460519808 6.9427906572818747 6.2513006925582921 4.8435589224100069 7.4574170261621422
leaf_count=39 27 25 37 29 27 20 32
internal_value=0 0.0100179 0.00219463 -0.0112266 -0.0178429 0.0151181 -0.0293754
internal_weight=55.5241 28.3363 22.8979 27.1878 20.245 13.3328 13.7087
internal_count=236 121 96 115 86 57 59
is_linear=0
shrinkage=0.03


Tree=29
num_leaves=8
num_cat=0
split_feature=34 65 10 49 68 77 46
split_gain=7.26613 8.73144 6.50597 4.68347 3.7338 1.76634 0.932333
threshold=-1.2418516093673715 -0.6308057742783032 -0.42274314965454329 -0.25065329882124232 0.65182308770695496 -0.37972309923694642 -0.31051683011897047
decision_type=2 2 2 2 2 2 2
left_child=-1 2 5 -4 6 -2 -3
right_child=1 4 3 -5 -6 -7 -8
leaf_value=-0.02985313732592686 -0.0026663557816115242 0.033061569460465644 -0.0082273675814503022 0.018491849853682921 0 -0.036732073960330139 0.0049563195344700314
leaf_weight=5.6454143673181525 4.7580969780683517 9.527646467089653 11.342062443494799 9.3728238195180875 4.7935886532068244 5.1238325238227862 4.7703517675399789
leaf_count=24 20 41 48 41 20 22 20
internal_value=0 0.00348906 -0.00569754 0.00277552 0.0192558 -0.0248388 0.0265826
internal_weight=55.3338 49.6884 30.5968 20.7149 19.0916 9.88193 14.298
internal_count=236 212 131 89 81 42 61
is_linear=0
shrinkage=0.03


Tree=30
num_leaves=7
num_cat=0
split_feature=5 62 7 27 66 16
split_gain=7.01297 8.21964 5.61766 4.82998 4.00527 2.55721
threshold=0.31890759697527676 -0.70457253176411216 -0.059208815074305157 -0.33218161549631131 -0.64248993186752934 0.35793622097116401
decision_type=2 2 2 2 2 2
left_child=1 2 3 -1 -2 -3
right_child=4 5 -4 -5 -6 -7
leaf_value=-0.025522627123136229 -0.02801513150785202 0.030099968177893819 0.018957902529582873 0.0013905039692266364 0 0
leaf_weight=10.630511000752451 9.7251474261283857 10.872611120343214 5.260755017399787 8.2379502803087217 4.7557171285152426 5.6811824142932883
leaf_count=45 41 49 22 35 20 24
internal_value=0 0.00599643 -0.00419054 -0.0127839 -0.0176321 0.0219471
internal_weight=55.1639 40.683 24.1292 18.8685 14.4809 16.5538
internal_count=236 175 102 80 61 73
is_linear=0
shrinkage=0.03


Tree=31
num_leaves=7
num_cat=0
split_feature=34 5 49 3 66 29
split_gain=6.81053 8.87433 6.43293 5.61929 3.65474 1.82151
threshold=-1.2418516093673715 0.31890759697527676 -0.25065329882124232 -0.65078776353644285 -0.64248993186752934 0.41919935919192169
decision_type=2 2 2 2 2 2
left_child=-1 2 3 -2 -3 -4
right_child=1 4 5 -5 -6 -7
leaf_value=-0.029007284662756337 0.014857204603922949 -0.027313647694065607 0.035511450622898337 -0.01369069726205643 0 0.0034332375466203744
leaf_weight=5.5920061469078055 11.96766838431358 8.3112289905548078 8.7311216145753878 10.711542353034019 4.7557171285152426 4.9118731319904319
leaf_count=24 51 35 39 46 20 21
internal_value=0 0.00340092 0.0114727 9.81503e-05 -0.0161241 0.0270343
internal_weight=54.9812 49.3892 36.3222 22.6792 13.0669 13.643
internal_count=236 212 157 97 55 60
is_linear=0
shrinkage=0.03


Tree=32
num_leaves=8
num_cat=0
split_feature=62 66 5 67 43 46 52
split_gain=6.6789 7.67223 6.38587 6.08824 2.86262 1.28138 0.358693
threshold=-0.70457253176411216 -0.64248993186752934 0.31890759697527676 -0.56276999065847277 -0.70591238208833496 -0.24452436939586827 -0.40933704528324416
decision_type=2 2 2 2 2 2 2
left_child=3 2 -2 5 -5 -1 -6
right_child=1 -3 -4 4 6 -7 -8
leaf_value=0.012997372556273189 0.012227815857067115 0.03117037414781923 -0.025576572235800014 0 -0.0071108622922463026 -0.0025228529963012966 -0.033002546758203306
leaf_weight=7.3770252615213394 9.1594275534153002 9.3635788559913617 5.4763642549514762 4.7544834315776852 4.8663483858108547 5.0689835101366061 8.7505149692296929
leaf_count=31 39 43 23 20 21 21 38
internal_value=0 0.0112651 -0.000730093 -0.00944525 -0.020344 0.00472766 -0.0269214
internal_weight=54.8167 23.9994 14.6358 30.8174 18.3713 12.446 13.6169
internal_count=236 105 62 131 79 52 59
is_linear=0
shrinkage=0.03


Tree=33
num_leaves=7
num_cat=0
split_feature=80 64 62 67 60 14
split_gain=6.48 9.57535 7.08535 3.50355 2.46504 0.719755
threshold=1.6685074875464354 1.0000000180025095e-35 -0.70457253176411216 -0.56276999065847277 -0.54020841943975062 -0.24057177221063403
decision_type=2 2 2 2 2 2
left_child=1 2 3 -1 -4 -2
right_child=5 -3 4 -5 -6 -7
leaf_value=0.011554730194241535 -0.0026369132917654649 -0.026732526022917848 0 -0.01196405139251602 0.031580575189337094 -0.027724756462756645
leaf_weight=9.8733705878257734 5.0776172429323196 5.8283070325851432 4.5304116606712368 10.886866778135298 12.451256588101389 5.9674394130706769
leaf_count=41 22 26 20 45 56 26
internal_value=0 0.00492689 0.0111541 0 0.0249536 -0.0198585
internal_weight=54.6153 43.5702 37.7419 20.7602 16.9817 11.0451
internal_count=236 188 162 86 76 48
is_linear=0
shrinkage=0.03


Tree=34
num_leaves=6
num_cat=0
split_feature=34 80 15 73 23
split_gain=6.35519 9.06834 5.08933 5.2457 0.968002
threshold=-1.2418516093673715 1.6685074875464354 0.67134397871577534 -1.3334438857505275 -0.24057177221063403
decision_type=2 2 2 2 2
left_child=-1 2 3 -2 -3
right_child=1 4 -4 -5 -6
leaf_value=-0.028210810224002719 -0.0001238764299314438 -0.00094431795557727266 -0.010706962657589175 0.023403511695913461 -0.027192587713197786
leaf_weight=5.5175038278102866 9.477848723530764 4.8514294028282166 5.9962708055973044 22.627164751291279 5.921959236264227
leaf_count=24 40 21 25 100 26
internal_value=0 0.0032682 0.0106583 0.0157578 -0.0190049
internal_weight=54.3922 48.8747 38.1013 32.105 10.7734
internal_count=236 212 165 140 47
is_linear=0
shrinkage=0.03


Tree=35
num_leaves=7
num_cat=0
split_feature=34 80 62 82 78 14
split_gain=6.03608 8.62804 5.76333 4.16265 3.58055 0.905499
threshold=-1.2418516093673715 1.6685074875464354 -0.70457253176411216 -0.47152653923650617 -1.2014094548888339 -0.24057177221063403
decision_type=2 2 2 2 2 2
left_child=-1 2 3 -2 -4 -3
right_child=1 5 4 -5 -6 -7
leaf_value=-0.027651164668695317 -0.0088845018640996993 -0.00092098457594820494 0 0.019024590698581176 0.031249131688413555 -0.026675595686921988
leaf_weight=5.48109246790409 14.883756279945372 4.850464716553688 5.373672932386401 5.8868883550167075 11.871536403894426 5.8757129460573179
leaf_count=24 62 21 23 25 55 26
internal_value=0 0.00309706 0.0103254 0 0.0226336 -0.0186593
internal_weight=54.2231 48.742 38.0159 20.7706 17.2452 10.7262
internal_count=236 212 165 87 78 47
is_linear=0
shrinkage=0.03


Tree=36
num_leaves=7
num_cat=0
split_feature=5 34 62 67 82 42
split_gain=5.9138 7.81968 6.63262 3.83738 3.77199 1.21048
threshold=0.31890759697527676 -1.0813483208239849 -0.70457253176411216 -0.56276999065847277 -0.29580655700196962 -0.28611663432897622
decision_type=2 2 2 2 2 2
left_child=1 -1 3 -3 -2 -4
right_child=4 2 5 -5 -6 -7
leaf_value=-0.024070181642773521 -0.027336406764400401 0.014144776262040901 0.036186836271707684 -0.010979401494727085 0 0.0083230547076589608
leaf_weight=5.2933770120143881 9.0300502181053144 8.7833918780088407 7.4997445791959763 11.41201266646385 5.1621223092079154 6.8233558684587496
leaf_count=23 39 37 36 49 22 30
internal_value=0 0.00547188 0.0113969 0 -0.0164288 0.0262801
internal_weight=54.0041 39.8119 34.5185 20.1954 14.1922 14.3231
internal_count=236 175 152 86 61 66
is_linear=0
shrinkage=0.03


Tree=37
num_leaves=7
num_cat=0
split_feature=80 64 62 82 60 14
split_gain=5.59939 8.59168 6.23311 3.90842 2.36173 0.545915
threshold=1.6685074875464354 1.0000000180025095e-35 -0.70457253176411216 -0.47152653923650617 -0.54020841943975062 -0.24057177221063403
decision_type=2 2 2 2 2 2
left_child=1 2 3 -1 -4 -2
right_child=5 -3 4 -5 -6 -7
leaf_value=-0.0088898169605754699 -0.0024475165237328412 -0.025696950222011895 0 0.018167511103822791 0.030146092712432626 -0.026016232642280975
leaf_weight=14.760079026222227 5.0515099912881851 5.7170432209968558 4.4599687606096294 5.8838753253221503 12.113314896821977 5.8105581402778608
leaf_count=61 22 26 20 25 56 26
internal_value=0 0.00448775 0.0104606 0 0.0236049 -0.0187148
internal_weight=53.7963 42.9343 37.2172 20.644 16.5733 10.8621
internal_count=236 188 162 86 76 48
is_linear=0
shrinkage=0.03


Tree=38
num_leaves=7
num_cat=0
split_feature=5 49 30 3 82 28
split_gain=5.55412 8.66287 4.6449 3.89232 3.56787 2.71613
threshold=0.31890759697527676 -0.25065329882124232 0.40550473401798787 -0.65078776353644285 -0.29580655700196962 0.4906940144654986
decision_type=2 2 2 2 2 2
left_child=1 2 3 -1 -2 -3
right_child=4 5 -4 -5 -6 -7
leaf_value=0.015606518790153222 -0.026640747127414856 0.034353053373553433 -0.024219379098437986 -0.0097196677353281313 0 0.0011791524031708937
leaf_weight=10.026311784982681 8.9519143402576429 8.2535226345062274 6.7205071449279776 8.8155393153429031 5.146088019013404 5.6610113382339469
leaf_count=44 39 38 29 39 22 25
internal_value=0 0.00532239 -0.00415277 0.00235253 -0.0159731 0.023852
internal_weight=53.5749 39.4769 25.5624 18.8419 14.098 13.9145
internal_count=236 175 112 83 61 63
is_linear=0
shrinkage=0.03


Tree=39
num_leaves=6
num_cat=0
split_feature=80 64 15 59 14
split_gain=5.28819 8.10959 4.49486 6.37544 0.525344
threshold=1.6685074875464354 1.0000000180025095e-35 0.67134397871577534 -0.2865755799642668 -0.24057177221063403
decision_type=2 2 2 2 2
left_child=1 2 3 -1 -2
right_child=4 -3 -4 -5 -6
leaf_value=0.0040111049408079 -0.0022142858779898794 -0.025073433664791693 -0.010997347556587355 0.034684575617436784 -0.025444136447220086
leaf_weight=22.229508444666862 5.0336529016494751 5.6506115347146979 5.2822388708591452 9.473529055714609 5.7500772029161435
leaf_count=98 22 26 22 42 26
internal_value=0 0.00436806 0.0101976 0.0148746 -0.0182548
internal_weight=53.4196 42.6359 36.9853 31.703 10.7837
internal_count=236 188 162 140 48
is_linear=0
shrinkage=0.03


Tree=40
num_leaves=7
num_cat=0
split_feature=34 80 62 26 78 14
split_gain=5.2294 7.42289 5.04496 3.82738 3.26365 0.749021
threshold=-1.2418516093673715 1.6685074875464354 -0.70457253176411216 0.43534861686835008 -1.2014094548888339 -0.24057177221063403
decision_type=2 2 2 2 2 2
left_child=-1 2 3 -2 -4 -3
right_child=1 5 4 -5 -6 -7
leaf_value=-0.026077062546629417 0.00843849323522676 -0.00062626652100885108 0 -0.017597015458328286 0.029740996376312598 -0.024973922666368959
leaf_weight=5.3400029093027106 13.909531146287916 4.8162391185760498 5.288275063037875 6.6955402046442023 11.487189382314684 5.7021482139825803
leaf_count=24 59 21 23 28 55 26
internal_value=0 0.00284279 0.0096411 0 0.0213573 -0.0174522
internal_weight=53.2389 47.8989 37.3805 20.6051 16.7755 10.5184
internal_count=236 212 165 87 78 47
is_linear=0
shrinkage=0.03


Tree=41
num_leaves=7
num_cat=0
split_feature=5 49 30 65 29 82
split_gain=5.13928 8.12441 4.3125 4.68889 3.50987 3.35645
threshold=0.31890759697527676 -0.25065329882124232 0.40550473401798787 -0.6308057742783032 0.53075772091973616 -0.29580655700196962
decision_type=2 2 2 2 2 2
left_child=1 2 3 -1 -3 -2
right_child=5 4 -4 -5 -6 -7
leaf_value=-0.0080435046340097422 -0.025926124787697468 0.032931086215435494 -0.023507321693541649 0.020486121056095808 0 0
leaf_weight=11.324525460600853 8.8352193981409055 9.2057099342346209 6.6520940214395514 7.3727073967456827 4.5101370811462393 5.1133560985326758
leaf_count=50 39 43 29 33 20 22
internal_value=0 0.00508329 -0.00407936 0.00215218 0.0231826 -0.0154972
internal_weight=53.0137 39.0652 25.3493 18.6972 13.7158 13.9486
internal_count=236 175 112 83 63 61
is_linear=0
shrinkage=0.03


end of trees

feature_importances:
Column_62=35
Column_63=26
Column_5=13
Column_34=12
Column_80=12
Column_22=11
Column_67=11
Column_10=10
Column_14=9
Column_12=8
Column_16=8
Column_28=8
Column_36=8
Column_65=8
Column_49=7
Column_66=7
Column_42=6
Column_64=6
Column_82=6
Column_60=5
Column_1=4
Column_25=4
Column_29=4
Column_30=4
Column_75=4
Column_11=3
Column_46=3
Column_77=3
Column_78=3
Column_3=2
Column_4=2
Column_15=2
Column_23=2
Column_26=2
Column_43=2
Column_59=2
Column_68=2
Column_73=2
Column_0=1
Column_7=1
Column_18=1
Column_24=1
Column_27=1
Column_33=1
Column_52=1
Column_53=1
Column_55=1

parameters:
[boosting: gbdt]
[objective: binary]
[metric: auc]
[tree_learner: serial]
[device_type: cpu]
[data_sample_strategy: bagging]
[data: ]
[valid: ]
[num_iterations: 3000]
[learning_rate: 0.03]
[num_leaves: 31]
[num_threads: 0]
[seed: 42]
[deterministic: 0]
[force_col_wise: 0]
[force_row_wise: 0]
[histogram_pool_size: -1]
[max_depth: 4]
[min_data_in_leaf: 20]
[min_sum_hessian_in_leaf: 0.001]
[bagging_fraction: 0.8]
[pos_bagging_fraction: 1]
[neg_bagging_fraction: 1]
[bagging_freq: 0]
[bagging_seed: 400]
[bagging_by_query: 0]
[feature_fraction: 0.8]
[feature_fraction_bynode: 1]
[feature_fraction_seed: 30056]
[extra_trees: 0]
[extra_seed: 12879]
[early_stopping_round: 0]
[early_stopping_min_delta: 0]
[first_metric_only: 0]
[max_delta_step: 0]
[lambda_l1: 1]
[lambda_l2: 1]
[linear_lambda: 0]
[min_gain_to_split: 0]
[drop_rate: 0.1]
[max_drop: 50]
[skip_drop: 0.5]
[xgboost_dart_mode: 0]
[uniform_drop: 0]
[drop_seed: 17869]
[top_rate: 0.2]
[other_rate: 0.1]
[min_data_per_group: 100]
[max_cat_threshold: 32]
[cat_l2: 10]
[cat_smooth: 10]
[max_cat_to_onehot: 4]
[top_k: 20]
[monotone_constraints: ]
[monotone_constraints_method: basic]
[monotone_penalty: 0]
[feature_contri: ]
[forcedsplits_filename: ]
[refit_decay_rate: 0.9]
[cegb_tradeoff: 1]
[cegb_penalty_split: 0]
[cegb_penalty_feature_lazy: ]
[cegb_penalty_feature_coupled: ]
[path_smooth: 0]
[interaction_constraints: ]
[verbosity: -1]
[saved_feature_importance_type: 0]
[use_quantized_grad: 0]
[num_grad_quant_bins: 4]
[quant_train_renew_leaf: 0]
[stochastic_rounding: 1]
[linear_tree: 0]
[max_bin: 255]
[max_bin_by_feature: ]
[min_data_in_bin: 3]
[bin_construct_sample_cnt: 200000]
[data_random_seed: 175]
[is_enable_sparse: 1]
[enable_bundle: 1]
[use_missing: 1]
[zero_as_missing: 0]
[feature_pre_filter: 1]
[pre_partition: 0]
[two_round: 0]
[header: 0]
[label_column: ]
[weight_column: ]
[group_column: ]
[ignore_column: ]
[categorical_feature: ]
[forcedbins_filename: ]
[precise_float_parser: 0]
[parser_config_file: ]
[objective_seed: 16083]
[num_class: 1]
[is_unbalance: 1]
[scale_pos_weight: 1]
[sigmoid: 1]
[boost_from_average: 1]
[reg_sqrt: 0]
[alpha: 0.9]
[fair_c: 1]
[poisson_max_delta_step: 0.7]
[tweedie_variance_power: 1.5]
[lambdarank_truncation_level: 30]
[lambdarank_norm: 1]
[label_gain: ]
[lambdarank_position_bias_regularization: 0]
[eval_at: ]
[multi_error_top_k: 1]
[auc_mu_weights: ]
[num_machines: 1]
[local_listen_port: 12400]
[time_out: 120]
[machine_list_filename: ]
[machines: ]
[gpu_platform_id: -1]
[gpu_device_id: -1]
[gpu_use_dp: 0]
[num_gpu: 1]

end of parameters

pandas_categorical:null
